digraph Tree {
node [shape=box, style="filled", color="black"] ;
0 [label="SCO <= 1705.189\ngini = 0.5\nsamples = 272\nvalue = [224, 215]\nclass = Noise", fillcolor="#fefaf7"] ;
1 [label="SCO <= 1531.666\ngini = 0.088\nsamples = 122\nvalue = [187, 9]\nclass = Noise", fillcolor="#e68743"] ;
0 -> 1 [labeldistance=2.5, labelangle=45, headlabel="True"] ;
11 [label="Centroid <= 4173.299\ngini = 0.011\nsamples = 109\nvalue = [174, 1]\nclass = Noise", fillcolor="#e5823a"] ;
1 -> 11 ;
17 [label="gini = 0.0\nsamples = 108\nvalue = [174, 0]\nclass = Noise", fillcolor="#e58139"] ;
11 -> 17 ;
18 [label="gini = 0.0\nsamples = 1\nvalue = [0, 1]\nclass = Signal", fillcolor="#399de5"] ;
11 -> 18 ;
12 [label="Split MaxAmp 3 <= 42982.367\ngini = 0.472\nsamples = 13\nvalue = [13, 8]\nclass = Noise", fillcolor="#f5cfb3"] ;
1 -> 12 ;
13 [label="gini = 0.0\nsamples = 6\nvalue = [0, 8]\nclass = Signal", fillcolor="#399de5"] ;
12 -> 13 ;
14 [label="gini = 0.0\nsamples = 7\nvalue = [13, 0]\nclass = Noise", fillcolor="#e58139"] ;
12 -> 14 ;
2 [label="MFCC_10 <= -11.882\ngini = 0.258\nsamples = 150\nvalue = [37, 206]\nclass = Signal", fillcolor="#5dafea"] ;
0 -> 2 [labeldistance=2.5, labelangle=-45, headlabel="False"] ;
3 [label="Split MaxAmp 4 <= 44374.146\ngini = 0.481\nsamples = 56\nvalue = [37, 55]\nclass = Signal", fillcolor="#bedff6"] ;
2 -> 3 ;
5 [label="SCO <= 1827.201\ngini = 0.062\nsamples = 18\nvalue = [1, 30]\nclass = Signal", fillcolor="#40a0e6"] ;
3 -> 5 ;
23 [label="MFCC_2 <= -45.587\ngini = 0.444\nsamples = 2\nvalue = [1, 2]\nclass = Signal", fillcolor="#9ccef2"] ;
5 -> 23 ;
25 [label="gini = 0.0\nsamples = 1\nvalue = [1, 0]\nclass = Noise", fillcolor="#e58139"] ;
23 -> 25 ;
26 [label="gini = 0.0\nsamples = 1\nvalue = [0, 2]\nclass = Signal", fillcolor="#399de5"] ;
23 -> 26 ;
24 [label="gini = 0.0\nsamples = 16\nvalue = [0, 28]\nclass = Signal", fillcolor="#399de5"] ;
5 -> 24 ;
6 [label="MFCC_3 <= 29.464\ngini = 0.484\nsamples = 38\nvalue = [36, 25]\nclass = Noise", fillcolor="#f7d8c2"] ;
3 -> 6 ;
7 [label="SCO <= 2696.193\ngini = 0.444\nsamples = 24\nvalue = [12, 24]\nclass = Signal", fillcolor="#9ccef2"] ;
6 -> 7 ;
9 [label="gini = 0.0\nsamples = 5\nvalue = [9, 0]\nclass = Noise", fillcolor="#e58139"] ;
7 -> 9 ;
10 [label="Crest Factor <= 285.8\ngini = 0.198\nsamples = 19\nvalue = [3, 24]\nclass = Signal", fillcolor="#52a9e8"] ;
7 -> 10 ;
15 [label="MFCC_1 <= 151.655\ngini = 0.077\nsamples = 17\nvalue = [1, 24]\nclass = Signal", fillcolor="#41a1e6"] ;
10 -> 15 ;
21 [label="gini = 0.0\nsamples = 16\nvalue = [0, 24]\nclass = Signal", fillcolor="#399de5"] ;
15 -> 21 ;
22 [label="gini = 0.0\nsamples = 1\nvalue = [1, 0]\nclass = Noise", fillcolor="#e58139"] ;
15 -> 22 ;
16 [label="gini = 0.0\nsamples = 2\nvalue = [2, 0]\nclass = Noise", fillcolor="#e58139"] ;
10 -> 16 ;
8 [label="MFCC_15 <= 2.421\ngini = 0.077\nsamples = 14\nvalue = [24, 1]\nclass = Noise", fillcolor="#e68641"] ;
6 -> 8 ;
19 [label="gini = 0.0\nsamples = 13\nvalue = [24, 0]\nclass = Noise", fillcolor="#e58139"] ;
8 -> 19 ;
20 [label="gini = 0.0\nsamples = 1\nvalue = [0, 1]\nclass = Signal", fillcolor="#399de5"] ;
8 -> 20 ;
4 [label="gini = 0.0\nsamples = 94\nvalue = [0, 151]\nclass = Signal", fillcolor="#399de5"] ;
2 -> 4 ;
}
