digraph Tree {
node [shape=box, style="filled", color="black"] ;
0 [label="Centroid <= 2766.603\ngini = 0.236\nsamples = 981\nvalue = [847, 134]\nclass = Noise", fillcolor="#e99558"] ;
1 [label="Spread <= 2974277.375\ngini = 0.094\nsamples = 891\nvalue = [847, 44]\nclass = Noise", fillcolor="#e68843"] ;
0 -> 1 [labeldistance=2.5, labelangle=45, headlabel="True"] ;
3 [label="Total MaxAmp <= 154983.445\ngini = 0.095\nsamples = 20\nvalue = [1, 19]\nclass = Signal", fillcolor="#43a2e6"] ;
1 -> 3 ;
9 [label="gini = 0.0\nsamples = 18\nvalue = [0, 18]\nclass = Signal", fillcolor="#399de5"] ;
3 -> 9 ;
10 [label="gini = 0.5\nsamples = 2\nvalue = [1, 1]\nclass = Noise", fillcolor="#ffffff"] ;
3 -> 10 ;
4 [label="SCO <= 3946.454\ngini = 0.056\nsamples = 871\nvalue = [846, 25]\nclass = Noise", fillcolor="#e6853f"] ;
1 -> 4 ;
5 [label="Spread <= 4388047.5\ngini = 0.032\nsamples = 860\nvalue = [846, 14]\nclass = Noise", fillcolor="#e5833c"] ;
4 -> 5 ;
7 [label="Spread <= 3388272.75\ngini = 0.023\nsamples = 856\nvalue = [846, 10]\nclass = Noise", fillcolor="#e5823b"] ;
5 -> 7 ;
11 [label="Centroid <= 2099.582\ngini = 0.165\nsamples = 33\nvalue = [30, 3]\nclass = Noise", fillcolor="#e88e4d"] ;
7 -> 11 ;
13 [label="gini = 0.0\nsamples = 26\nvalue = [26, 0]\nclass = Noise", fillcolor="#e58139"] ;
11 -> 13 ;
14 [label="gini = 0.49\nsamples = 7\nvalue = [4, 3]\nclass = Noise", fillcolor="#f8e0ce"] ;
11 -> 14 ;
12 [label="Total MaxAmp <= 90063.578\ngini = 0.017\nsamples = 823\nvalue = [816, 7]\nclass = Noise", fillcolor="#e5823b"] ;
7 -> 12 ;
15 [label="Total MaxAmp <= 89387.766\ngini = 0.15\nsamples = 61\nvalue = [56, 5]\nclass = Noise", fillcolor="#e78c4b"] ;
12 -> 15 ;
17 [label="Flatness <= 0.004\ngini = 0.097\nsamples = 59\nvalue = [56, 3]\nclass = Noise", fillcolor="#e68844"] ;
15 -> 17 ;
19 [label="gini = 0.5\nsamples = 2\nvalue = [1, 1]\nclass = Noise", fillcolor="#ffffff"] ;
17 -> 19 ;
20 [label="Total MaxAmp <= 45113.082\ngini = 0.068\nsamples = 57\nvalue = [55, 2]\nclass = Noise", fillcolor="#e68640"] ;
17 -> 20 ;
21 [label="gini = 0.32\nsamples = 5\nvalue = [4, 1]\nclass = Noise", fillcolor="#eca06a"] ;
20 -> 21 ;
22 [label="SCO <= 1331.439\ngini = 0.038\nsamples = 52\nvalue = [51, 1]\nclass = Noise", fillcolor="#e6833d"] ;
20 -> 22 ;
23 [label="gini = 0.0\nsamples = 41\nvalue = [41, 0]\nclass = Noise", fillcolor="#e58139"] ;
22 -> 23 ;
24 [label="Crest Factor <= 163.126\ngini = 0.165\nsamples = 11\nvalue = [10, 1]\nclass = Noise", fillcolor="#e88e4d"] ;
22 -> 24 ;
25 [label="gini = 0.0\nsamples = 10\nvalue = [10, 0]\nclass = Noise", fillcolor="#e58139"] ;
24 -> 25 ;
26 [label="gini = 0.0\nsamples = 1\nvalue = [0, 1]\nclass = Signal", fillcolor="#399de5"] ;
24 -> 26 ;
18 [label="gini = 0.0\nsamples = 2\nvalue = [0, 2]\nclass = Signal", fillcolor="#399de5"] ;
15 -> 18 ;
16 [label="Spread <= 4236960.75\ngini = 0.005\nsamples = 762\nvalue = [760, 2]\nclass = Noise", fillcolor="#e5813a"] ;
12 -> 16 ;
27 [label="Crest Factor <= 220.352\ngini = 0.003\nsamples = 745\nvalue = [744, 1]\nclass = Noise", fillcolor="#e58139"] ;
16 -> 27 ;
31 [label="gini = 0.0\nsamples = 686\nvalue = [686, 0]\nclass = Noise", fillcolor="#e58139"] ;
27 -> 31 ;
32 [label="SCO <= 3205.742\ngini = 0.033\nsamples = 59\nvalue = [58, 1]\nclass = Noise", fillcolor="#e5833c"] ;
27 -> 32 ;
33 [label="gini = 0.0\nsamples = 29\nvalue = [29, 0]\nclass = Noise", fillcolor="#e58139"] ;
32 -> 33 ;
34 [label="Total MaxAmp <= 177909.945\ngini = 0.064\nsamples = 30\nvalue = [29, 1]\nclass = Noise", fillcolor="#e68540"] ;
32 -> 34 ;
35 [label="gini = 0.0\nsamples = 1\nvalue = [0, 1]\nclass = Signal", fillcolor="#399de5"] ;
34 -> 35 ;
36 [label="gini = 0.0\nsamples = 29\nvalue = [29, 0]\nclass = Noise", fillcolor="#e58139"] ;
34 -> 36 ;
28 [label="Spread <= 4239107.25\ngini = 0.111\nsamples = 17\nvalue = [16, 1]\nclass = Noise", fillcolor="#e78945"] ;
16 -> 28 ;
29 [label="gini = 0.0\nsamples = 1\nvalue = [0, 1]\nclass = Signal", fillcolor="#399de5"] ;
28 -> 29 ;
30 [label="gini = 0.0\nsamples = 16\nvalue = [16, 0]\nclass = Noise", fillcolor="#e58139"] ;
28 -> 30 ;
8 [label="gini = 0.0\nsamples = 4\nvalue = [0, 4]\nclass = Signal", fillcolor="#399de5"] ;
5 -> 8 ;
6 [label="gini = 0.0\nsamples = 11\nvalue = [0, 11]\nclass = Signal", fillcolor="#399de5"] ;
4 -> 6 ;
2 [label="gini = 0.0\nsamples = 90\nvalue = [0, 90]\nclass = Signal", fillcolor="#399de5"] ;
0 -> 2 [labeldistance=2.5, labelangle=-45, headlabel="False"] ;
}
